{"error_HSGS": [0.4074, 0.5926, 0.5556, 0.5556, 0.4444, 0.5926, 0.5185, 0.4815, 0.5926, 0.5556, 0.6296, 0.5185, 0.4074, 0.5556, 0.4074, 0.5556, 0.5185, 0.5556, 0.4444, 0.5926, 0.4815, 0.6296, 0.2593, 0.4444, 0.3704, 0.5926, 0.7037, 0.2593, 0.5185, 0.5926, 0.5926, 0.4815, 0.4815, 0.4444, 0.4815, 0.6296, 0.5185, 0.6296, 0.4815, 0.4444], "error_encoding_weight": [0.3333, 0.3333, 0.3333, 0.3333, 0.3333, 0.3333, 0.3333, 0.3333, 0.3333, 0.3333, 0.3333, 0.3333, 0.3333, 0.3333, 0.3333, 0.3333, 0.3333, 0.3333, 0.3333, 0.3333, 0.3333, 0.3333, 0.3333, 0.3333, 0.3333, 0.3333, 0.3333, 0.3333, 0.3333, 0.3333, 0.3333, 0.3333, 0.3333, 0.3333, 0.3333, 0.3333, 0.3333, 0.3333, 0.3333, 0.3333], "error_encoding_input": [0.2963, 0.5556, 0.4815, 0.4444, 0.4444, 0.4815, 0.4444, 0.5926, 0.3704, 0.5185, 0.4815, 0.4444, 0.4074, 0.4074, 0.5556, 0.4444, 0.4074, 0.6667, 0.4074, 0.5185, 0.5926, 0.4444, 0.4444, 0.4444, 0.4815, 0.4074, 0.6296, 0.4074, 0.4444, 0.6296, 0.4815, 0.5556, 0.5185, 0.4074, 0.5926, 0.4815, 0.6296, 0.5185, 0.4444, 0.5926], "error_classic": [0.3333, 0.3333, 0.3333, 0.3333, 0.3333, 0.3333, 0.3333, 0.3333, 0.3333, 0.3333, 0.3333, 0.3333, 0.3333, 0.3333, 0.3333, 0.3333, 0.3333, 0.3333, 0.3333, 0.3333, 0.3333, 0.3333, 0.3333, 0.3333, 0.3333, 0.3333, 0.3333, 0.3333, 0.3333, 0.3333, 0.3333, 0.3333, 0.3333, 0.3333, 0.3333, 0.3333, 0.3333, 0.3333, 0.3333, 0.3333], "error_classic_bin": [0.1481, 0.1481, 0.1481, 0.1481, 0.1481, 0.1481, 0.1481, 0.1481, 0.1481, 0.1481, 0.1481, 0.1481, 0.1481, 0.1481, 0.1481, 0.1481, 0.1481, 0.1481, 0.1481, 0.1481, 0.1481, 0.1481, 0.1481, 0.1481, 0.1481, 0.1481, 0.1481, 0.1481, 0.1481, 0.1481, 0.1481, 0.1481, 0.1481, 0.1481, 0.1481, 0.1481, 0.1481, 0.1481, 0.1481, 0.1481], "weights_learned_HSGS": [[-0.286545494798, 0.286545494798, 0.286545494798, -0.286545494798, 0.286545494798, 0.0606220936, 0.0606220936, 0.286545494798, 0.286545494798, 0.0606220936, 0.0606220936, 0.286545494798, -0.286545494798, 0.286545494798, 0.286545494798, -0.286545494798], [-0.3277001618, -0.069192728361, -0.3277001618, -0.3277001618, -0.069192728361, 0.3277001618, 0.069192728361, -0.069192728361, -0.069192728361, 0.3277001618, 0.069192728361, -0.3277001618, -0.3277001618, -0.069192728361, -0.3277001618, -0.3277001618]], "weights_learned_encoding_weight": [[-0.288274333691, 0.288274333691, 0.288274333691, -0.288274333691, 0.288274333691, 0.026338671293, 0.026338671293, 0.288274333691, 0.288274333691, 0.026338671293, 0.026338671293, 0.288274333691, -0.288274333691, 0.288274333691, 0.288274333691, -0.288274333691], [-0.231941734886, -0.271458306338, -0.231941734886, -0.231941734886, -0.271458306338, 0.231941734886, 0.271458306338, -0.271458306338, -0.271458306338, 0.231941734886, 0.271458306338, -0.231941734886, -0.231941734886, -0.271458306338, -0.231941734886, -0.231941734886]], "weights_learned_encoding_input": [[-0.288630979079, 0.288630979079, 0.288630979079, -0.288630979079, 0.288630979079, 0.008744926989, 0.008744926989, 0.288630979079, 0.288630979079, 0.008744926989, 0.008744926989, 0.288630979079, -0.288630979079, 0.288630979079, 0.288630979079, -0.288630979079], [-0.250000000001, -0.249999999999, -0.250000000001, -0.250000000001, -0.249999999999, 0.250000000001, 0.249999999999, -0.249999999999, -0.249999999999, 0.250000000001, 0.249999999999, -0.250000000001, -0.250000000001, -0.249999999999, -0.250000000001, -0.250000000001]], "weights_learned_classic": [[-0.288253180374, 0.288253180374, 0.288253180372, -0.288253180374, 0.288253180372, 0.027024285634, 0.027024285634, 0.288253180372, 0.288253180372, 0.027024285638, 0.027024285634, 0.288253180374, -0.288253180374, 0.288253180374, 0.288253180372, -0.288253180372], [-0.266769017249, -0.226623861726, -0.266769017249, -0.266769017249, -0.226623861726, 0.266769017249, 0.226623861726, -0.226623861726, -0.226623861726, 0.266769017249, 0.226623861726, -0.266769017249, -0.266769017249, -0.226623861726, -0.266769017249, -0.266769017249]], "weights_learned_classic_bin": [[-0.286627663865, 0.286627663865, 0.286627663865, -0.286627663865, 0.286627663865, 0.059445327163, 0.059445327163, 0.286627663865, 0.286627663865, 0.059445327164, 0.059445327163, 0.286627663865, -0.286627663865, 0.286627663865, 0.286627663865, -0.286627663865], [-0.327495063878, -0.0704301561, -0.327495063878, -0.327495063878, -0.0704301561, 0.327495063878, 0.0704301561, -0.0704301561, -0.0704301561, 0.327495063878, 0.0704301561, -0.327495063878, -0.327495063878, -0.0704301561, -0.327495063878, -0.327495063878]]}