{"error_HSGS": [0.6354, 0.6354, 0.6354, 0.6354, 0.6354, 0.6354, 0.6354, 0.6354, 0.6354, 0.6354], "error_encoding_weight": [0.6354, 0.6354, 0.6354, 0.6354, 0.6354, 0.6354, 0.6354, 0.6354, 0.6354, 0.6354], "error_encoding_input": [0.6354, 0.6354, 0.6354, 0.6354, 0.6354, 0.6354, 0.6354, 0.6354, 0.6354, 0.6354], "error_classic": [0.6354, 0.6354, 0.6354, 0.6354, 0.6354, 0.6354, 0.6354, 0.6354, 0.6354, 0.6354], "error_classic_bin": [0.6354, 0.6354, 0.6354, 0.6354, 0.6354, 0.6354, 0.6354, 0.6354, 0.6354, 0.6354], "weights_learned_HSGS": [[-1, 1, -1, -1, -1, -1, -1, -1, -1, 1, -1, 1, -1, 1, -1, 1, -1, 1, -1, -1, 1, 1, -1, 1, 1, 1, -1, -1, -1, 1, -1, -1, 1, 1, 1, -1, 1, 1, -1, 1, 1, 1, -1, 1, -1, -1, 1, -1, -1, -1, -1, 1, -1, -1, -1, -1, 1, -1, 1, 1, -1, -1, 1, -1, -1, 1, 1, 1, 1, 1, 1, -1, -1, 1, -1, -1, 1, -1, 1, 1, 1, 1, 1, -1, -1, 1, -1, 1, 1, 1, -1, 1, -1, 1, -1, -1, 1, 1, -1, 1, -1, 1, 1, -1, 1, 1, -1, 1, 1, 1, -1, -1, 1, 1, -1, 1, 1, 1, 1, -1, -1, -1, -1, -1, 1, 1, 1, 1], [0.10110842158, 0.101108384133, -0.023741359052, -0.012854673323, -0.066290400683, -0.030689904272, 0.094159859294, 0.081000215913, 0.10110842158, -0.058625577086, -0.04512057527, -0.019008255113, 0.092820245227, 0.024180066345, -0.018488806507, -0.048356882926, 0.10110842158, -0.033775750413, 0.033846550248, 0.030645011372, -0.087072426482, -0.092146406123, 0.058488082749, 0.011764066066, 0.096239552917, 0.097954897315, -0.023701892319, -0.024163184397, 0.100354262763, -0.026892104353, -0.013667822422, 0.087398566108, 0.10110842158, 0.101075795822, 0.10110842158, -0.010512926214, 0.1003710904, -0.010465013154, 0.100372156264, 0.100369611304, 0.10110842158, 0.079844864143, -0.079844864143, -0.014904065745, -0.091602684051, -0.048713362538, -0.070126677221, 0.070417436515, 0.10110842158, 0.10110842158, -0.053112334208, 0.09294754834, 0.095449591696, 0.032317708806, -0.06805560634, -0.030349700637, 0.10110842158, 0.066815558896, -0.053093235309, 0.096216841232, 0.085858086109, 0.091821679394, 0.049731538022, 0.080998348748, -0.10110842158, -0.10110842158, -0.10110842158, -0.10110842158, -0.10110842158, -0.10110842158, -0.10110842158, -0.10110842158, -0.10110842158, -0.10110842158, -0.10110842158, -0.10110842158, -0.10110842158, -0.10110842158, -0.10110842158, -0.10110842158, -0.10110842158, -0.10110842158, -0.10110842158, -0.10110842158, -0.10110842158, -0.10110842158, -0.10110842158, -0.10110842158, -0.10110842158, -0.10110842158, -0.10110842158, -0.10110842158, -0.10110842158, -0.10110842158, -0.10110842158, -0.10110842158, -0.10110842158, -0.10110842158, -0.10110842158, -0.10110842158, -0.10110842158, -0.10110842158, -0.10110842158, -0.10110842158, -0.10110842158, -0.10110842158, -0.10110842158, -0.10110842158, -0.10110842158, -0.10110842158, -0.10110842158, -0.10110842158, -0.10110842158, -0.10110842158, -0.10110842158, -0.10110842158, -0.10110842158, -0.10110842158, -0.10110842158, -0.10110842158, -0.10110842158, -0.10110842158, -0.10110842158, -0.10110842158, -0.10110842158, -0.10110842158, -0.10110842158, -0.10110842158]], "weights_learned_encoding_weight": [[1, -1, 1, 1, 1, 1, 1, 1, 1, -1, 1, -1, 1, -1, 1, -1, 1, -1, 1, 1, -1, -1, 1, -1, -1, -1, 1, 1, 1, -1, 1, 1, -1, -1, -1, 1, -1, -1, 1, -1, -1, -1, 1, -1, 1, 1, -1, 1, 1, 1, 1, -1, 1, 1, 1, 1, -1, 1, -1, -1, 1, 1, -1, 1, 1, -1, -1, -1, -1, -1, -1, 1, 1, -1, 1, 1, -1, 1, -1, -1, -1, -1, -1, 1, 1, -1, 1, -1, -1, -1, 1, -1, 1, -1, 1, 1, -1, -1, 1, -1, 1, -1, -1, 1, -1, -1, 1, -1, -1, -1, 1, 1, -1, -1, 1, -1, -1, -1, -1, 1, 1, 1, 1, 1, -1, -1, -1, -1], [0.102390436731, 0.102390110186, -0.01601154135, -0.003730334539, -0.06054788668, -0.026300589134, 0.092101249439, 0.075733299776, 0.102390436731, -0.053273972473, -0.039822033193, -0.012219464712, 0.090201380811, 0.016675522613, -0.010845998494, -0.044937167764, 0.102390436731, -0.031016435534, 0.031200804902, 0.02614525445, -0.084238921851, -0.088887616109, 0.052967000513, 0.001464149673, 0.095734285121, 0.097506636038, -0.015875336169, -0.01661059819, 0.10089893695, -0.020887843351, -0.004360480198, 0.085034256395, 0.102390436731, 0.102283404196, 0.10239043673, 0.000531625389, 0.100969717521, 0.000700127499, 0.100975956908, 0.10096332325, 0.102390436731, 0.074251866085, -0.074251866079, -0.006294280412, -0.088261209495, -0.038596478809, -0.066652755284, 0.067351861352, 0.102390436731, 0.102390436731, -0.048798970232, 0.090462421266, 0.094176685199, 0.028505866414, -0.063306736969, -0.025455201222, 0.102390436731, 0.062756727242, -0.048745671752, 0.095637815859, 0.082341324575, 0.088796672414, 0.040025182118, 0.075724120045, -0.102390436731, -0.102390436731, -0.102390436731, -0.102390436731, -0.102390436731, -0.102390436731, -0.102390436731, -0.102390436731, -0.102390436731, -0.102390436731, -0.102390436731, -0.102390436731, -0.102390436731, -0.102390436731, -0.102390436731, -0.102390436731, -0.102390436731, -0.102390436731, -0.102390436731, -0.102390436731, -0.102390436731, -0.102390436731, -0.102390436731, -0.102390436731, -0.102390436731, -0.102390436731, -0.102390436731, -0.102390436731, -0.102390436731, -0.102390436731, -0.102390436731, -0.102390436731, -0.102390436731, -0.102390436731, -0.102390436731, -0.102390436731, -0.102390436731, -0.102390436731, -0.102390436731, -0.102390436731, -0.102390436731, -0.102390436731, -0.102390436731, -0.102390436731, -0.102390436731, -0.102390436731, -0.102390436731, -0.102390436731, -0.102390436731, -0.102390436731, -0.102390436731, -0.102390436731, -0.102390436731, -0.102390436731, -0.102390436731, -0.102390436731, -0.102390436731, -0.102390436731, -0.102390436731, -0.102390436731, -0.102390436731, -0.102390436731, -0.102390436731, -0.102390436731]], "weights_learned_encoding_input": [[-1, 1, -1, -1, -1, -1, -1, -1, -1, 1, -1, 1, -1, 1, -1, 1, -1, 1, -1, -1, 1, 1, -1, 1, 1, 1, -1, -1, -1, 1, -1, -1, 1, 1, 1, -1, 1, 1, -1, 1, 1, 1, -1, 1, -1, -1, 1, -1, -1, -1, -1, 1, -1, -1, -1, -1, 1, -1, 1, 1, -1, -1, 1, -1, -1, 1, 1, 1, 1, 1, 1, -1, -1, 1, -1, -1, 1, -1, 1, 1, 1, 1, 1, -1, -1, 1, -1, 1, 1, 1, -1, 1, -1, 1, -1, -1, 1, 1, -1, 1, -1, 1, 1, -1, 1, 1, -1, 1, 1, 1, -1, -1, 1, 1, -1, 1, 1, 1, 1, -1, -1, -1, -1, -1, 1, 1, 1, 1], [-0.098532153102, -0.098532152917, 0.031516251729, 0.02626944918, 0.081210211623, 0.033855928758, -0.096192475789, -0.090542287692, -0.098532153102, 0.076763217532, 0.044004335627, 0.028659496797, -0.095751336123, -0.031575917254, 0.028608239424, 0.044792687359, -0.098532153102, 0.034635454136, -0.034639664329, -0.033854037566, 0.092780044863, 0.095673671921, -0.076742952814, -0.026132614348, -0.096567544817, -0.097748498203, 0.031514635075, 0.031575246607, -0.098437901963, 0.032299786705, 0.02664560195, -0.092816357375, -0.098532153102, -0.098530761503, -0.098532153102, 0.025861917468, -0.098438529254, 0.02585993057, -0.098438555041, -0.098438481819, -0.098532153102, -0.090129077403, 0.090129077403, 0.026915728245, 0.095483319293, 0.073655961293, 0.082085306125, -0.08212456239, -0.098532153102, -0.098532153102, 0.047650385141, -0.095771279191, -0.096470546549, -0.034335948014, 0.081562819285, 0.033819021079, -0.098532153102, -0.080431253613, 0.047649534529, -0.096566729777, -0.092506478297, -0.095512705358, -0.073901134151, -0.090542235859, 0.098532153102, 0.098532153102, 0.098532153102, 0.098532153102, 0.098532153102, 0.098532153102, 0.098532153102, 0.098532153102, 0.098532153102, 0.098532153102, 0.098532153102, 0.098532153102, 0.098532153102, 0.098532153102, 0.098532153102, 0.098532153102, 0.098532153102, 0.098532153102, 0.098532153102, 0.098532153102, 0.098532153102, 0.098532153102, 0.098532153102, 0.098532153102, 0.098532153102, 0.098532153102, 0.098532153102, 0.098532153102, 0.098532153102, 0.098532153102, 0.098532153102, 0.098532153102, 0.098532153102, 0.098532153102, 0.098532153102, 0.098532153102, 0.098532153102, 0.098532153102, 0.098532153102, 0.098532153102, 0.098532153102, 0.098532153102, 0.098532153102, 0.098532153102, 0.098532153102, 0.098532153102, 0.098532153102, 0.098532153102, 0.098532153102, 0.098532153102, 0.098532153102, 0.098532153102, 0.098532153102, 0.098532153102, 0.098532153102, 0.098532153102, 0.098532153102, 0.098532153102, 0.098532153102, 0.098532153102, 0.098532153102, 0.098532153102, 0.098532153102, 0.098532153102]], "weights_learned_classic": [[-1, 1, -1, -1, -1, -1, -1, -1, -1, 1, -1, 1, -1, 1, -1, 1, -1, 1, -1, -1, 1, 1, -1, 1, 1, 1, -1, -1, -1, 1, -1, -1, 1, 1, 1, -1, 1, 1, -1, 1, 1, 1, -1, 1, -1, -1, 1, -1, -1, -1, -1, 1, -1, -1, -1, -1, 1, -1, 1, 1, -1, -1, 1, -1, -1, 1, 1, 1, 1, 1, 1, -1, -1, 1, -1, -1, 1, -1, 1, 1, 1, 1, 1, -1, -1, 1, -1, 1, 1, 1, -1, 1, -1, 1, -1, -1, 1, 1, -1, 1, -1, 1, 1, -1, 1, 1, -1, 1, 1, 1, -1, -1, 1, 1, -1, 1, 1, 1, 1, -1, -1, -1, -1, -1, 1, 1, 1, 1], [0.102290138008, 0.10228979061, -0.017437849691, -0.004760698259, -0.061393735259, -0.027429724814, 0.092298133315, 0.075589060797, 0.102290138008, -0.053617049232, -0.039914214872, -0.012969350822, 0.090439951477, 0.018096755835, -0.011599554981, -0.044911134756, 0.102290138008, -0.032040017227, 0.032219494694, 0.027281085191, -0.083810690579, -0.089135266722, 0.05331026042, 0.002484778537, 0.095866898971, 0.097516743155, -0.017306636688, -0.018035653134, 0.100805946981, -0.02220494977, -0.005340178453, 0.084608512547, 0.102290138008, 0.102186894662, 0.102290138007, -0.000558447795, 0.100873819316, -0.000396496031, 0.10088018078, 0.100867385818, 0.102290138008, 0.074160374172, -0.074160374167, -0.007207356672, -0.088568245691, -0.039349754759, -0.067391703417, 0.068108726987, 0.102290138008, 0.102290138008, -0.049448369074, 0.090701851944, 0.094317788778, 0.029591352212, -0.064098413288, -0.026585983202, 0.102290138008, 0.063674083219, -0.049395999318, 0.095774635425, 0.081965982029, 0.089110967511, 0.040716087259, 0.075579908803, -0.102290138008, -0.102290138008, -0.102290138008, -0.102290138008, -0.102290138008, -0.102290138008, -0.102290138008, -0.102290138008, -0.102290138008, -0.102290138008, -0.102290138008, -0.102290138008, -0.102290138008, -0.102290138008, -0.102290138008, -0.102290138008, -0.102290138008, -0.102290138008, -0.102290138008, -0.102290138008, -0.102290138008, -0.102290138008, -0.102290138008, -0.102290138008, -0.102290138008, -0.102290138008, -0.102290138008, -0.102290138008, -0.102290138008, -0.102290138008, -0.102290138008, -0.102290138008, -0.102290138008, -0.102290138008, -0.102290138008, -0.102290138008, -0.102290138008, -0.102290138008, -0.102290138008, -0.102290138008, -0.102290138008, -0.102290138008, -0.102290138008, -0.102290138008, -0.102290138008, -0.102290138008, -0.102290138008, -0.102290138008, -0.102290138008, -0.102290138008, -0.102290138008, -0.102290138008, -0.102290138008, -0.102290138008, -0.102290138008, -0.102290138008, -0.102290138008, -0.102290138008, -0.102290138008, -0.102290138008, -0.102290138008, -0.102290138008, -0.102290138008, -0.102290138008]], "weights_learned_classic_bin": [[-1, 1, -1, -1, -1, -1, -1, -1, -1, 1, -1, 1, -1, 1, -1, 1, -1, 1, -1, -1, 1, 1, -1, 1, 1, 1, -1, -1, -1, 1, -1, -1, 1, 1, 1, -1, 1, 1, -1, 1, 1, 1, -1, 1, -1, -1, 1, -1, -1, -1, -1, 1, -1, -1, -1, -1, 1, -1, 1, 1, -1, -1, 1, -1, -1, 1, 1, 1, 1, 1, 1, -1, -1, 1, -1, -1, 1, -1, 1, 1, 1, 1, 1, -1, -1, 1, -1, 1, 1, 1, -1, 1, -1, 1, -1, -1, 1, 1, -1, 1, -1, 1, 1, -1, 1, 1, -1, 1, 1, 1, -1, -1, 1, 1, -1, 1, 1, 1, 1, -1, -1, -1, -1, -1, 1, 1, 1, 1], [0.101027904763, 0.101027868959, -0.024633631967, -0.013918460645, -0.066807085942, -0.031737529601, 0.093923990274, 0.080910066297, 0.101027904763, -0.059249076135, -0.045737822262, -0.020109552451, 0.092673967969, 0.025077483602, -0.019587398027, -0.048905032518, 0.101027904763, -0.034752263553, 0.034823877719, 0.031691912825, -0.08712698141, -0.091996495617, 0.059105205537, 0.01281817455, 0.096026626468, 0.097944698201, -0.024593755145, -0.025060121824, 0.100264179896, -0.027713997259, -0.014634752157, 0.087457250171, 0.101027904763, 0.100995001149, 0.101027904763, -0.011550115154, 0.100281430114, -0.01150155938, 0.100282551252, 0.100279995156, 0.101027904763, 0.079846871506, -0.079846871506, -0.01588744721, -0.091440006807, -0.049249634512, -0.070581342656, 0.070872021252, 0.101027904763, 0.101027904763, -0.053451392732, 0.092807449062, 0.09522656981, 0.033274152288, -0.068595777799, -0.031392726516, 0.101027904763, 0.067155028133, -0.053432425689, 0.096003309816, 0.085900052774, 0.091661853624, 0.050277542326, 0.08090824258, -0.101027904763, -0.101027904763, -0.101027904763, -0.101027904763, -0.101027904763, -0.101027904763, -0.101027904763, -0.101027904763, -0.101027904763, -0.101027904763, -0.101027904763, -0.101027904763, -0.101027904763, -0.101027904763, -0.101027904763, -0.101027904763, -0.101027904763, -0.101027904763, -0.101027904763, -0.101027904763, -0.101027904763, -0.101027904763, -0.101027904763, -0.101027904763, -0.101027904763, -0.101027904763, -0.101027904763, -0.101027904763, -0.101027904763, -0.101027904763, -0.101027904763, -0.101027904763, -0.101027904763, -0.101027904763, -0.101027904763, -0.101027904763, -0.101027904763, -0.101027904763, -0.101027904763, -0.101027904763, -0.101027904763, -0.101027904763, -0.101027904763, -0.101027904763, -0.101027904763, -0.101027904763, -0.101027904763, -0.101027904763, -0.101027904763, -0.101027904763, -0.101027904763, -0.101027904763, -0.101027904763, -0.101027904763, -0.101027904763, -0.101027904763, -0.101027904763, -0.101027904763, -0.101027904763, -0.101027904763, -0.101027904763, -0.101027904763, -0.101027904763, -0.101027904763]]}