{"error_HSGS": [0.3646, 0.3646, 0.3646, 0.3646, 0.3646, 0.3646, 0.3646, 0.3646, 0.3646, 0.3646], "error_encoding_weight": [0.6615, 0.6667, 0.6667, 0.6667, 0.6615, 0.6667, 0.6615, 0.6667, 0.6667, 0.6615], "error_encoding_input": [0.4948, 0.526, 0.5573, 0.5208, 0.5469, 0.5417, 0.4948, 0.5052, 0.4635, 0.5573], "error_phase_encoding": [0.526, 0.4896, 0.5208, 0.5104, 0.4896, 0.5156, 0.5156, 0.5104, 0.5104, 0.5156], "error_classic": [0.4167, 0.4167, 0.4167, 0.4167, 0.4167, 0.4167, 0.4167, 0.4167, 0.4167, 0.4167], "error_classic_bin": [0.3646, 0.3646, 0.3646, 0.3646, 0.3646, 0.3646, 0.3646, 0.3646, 0.3646, 0.3646], "weights_learned_HSGS": [[-0.342738255498, -0.033094685231, -0.487840016467, -0.358462033991, -0.29439616773, -0.442212504808, -0.324137206066, -0.357304334159], [-0.424920801799, -0.415527301164, -0.623022394816, -0.018657999204, -0.31497331883, -0.216644039593, -0.334516189584, -0.015180126798]], "weights_learned_encoding_weight": [[-0.16694010458, -0.565332086787, -0.597213136306, -0.151113455371, -0.036563126355, -0.463906655715, -0.12928823079, -0.199424503295], [-0.285505451953, -0.575062850437, -0.464901470981, -0.28487436249, -0.086953489325, -0.433486718985, -0.183557159926, -0.247664488829]], "weights_learned_encoding_input": [[-0.197341516153, -0.559496903785, -0.593266582724, -0.133050633929, -0.03608027023, -0.460421144566, -0.129398903387, -0.219814328083], [-0.288759141931, -0.590511177869, -0.467105516691, -0.23945870699, -0.077324402506, -0.454386619915, -0.172903031946, -0.223707283409]], "weights_learned_phase_encoding": [[-0.185013300473, -0.56131373796, -0.592466227206, -0.168492482986, -0.053876156239, -0.47222321772, -0.130639156077, -0.16830633487], [-0.277673569679, -0.578484293933, -0.503723926821, -0.227780560076, -0.093869576258, -0.443694512849, -0.178318292405, -0.21250364912]], "weights_learned_classic": [[-0.212813602325, -0.574093000426, -0.54337196346, -0.161862576847, -0.066328916358, -0.463811002147, -0.145191201293, -0.251146087525], [-0.255848149512, -0.578286942551, -0.460766334527, -0.229739550647, -0.092602742116, -0.482870039196, -0.185675141172, -0.242540841204]], "weights_learned_classic_bin": [[-0.167328528401, -0.572193730419, -0.589264760867, -0.143026416914, -0.039259755295, -0.469362231266, -0.128247102853, -0.196510641449], [-0.252629687707, -0.625049134761, -0.464222374414, -0.208763591777, -0.059205698702, -0.46633420978, -0.158504561168, -0.200774908754]]}