{"error_HSGS": [0.3646, 0.3646, 0.3646, 0.3646, 0.3646, 0.3646, 0.3646, 0.3646, 0.3646, 0.3646], "error_encoding_weight": [0.3542, 0.3542, 0.3542, 0.3542, 0.3594, 0.3646, 0.3594, 0.3594, 0.3646, 0.3698], "error_encoding_input": [0.599, 0.5521, 0.4583, 0.4219, 0.5208, 0.4688, 0.4896, 0.4896, 0.5, 0.5], "error_phase_encoding": [0.4844, 0.4792, 0.4792, 0.474, 0.474, 0.4844, 0.4896, 0.4792, 0.474, 0.4896], "error_classic": [0.276, 0.276, 0.276, 0.276, 0.276, 0.276, 0.276, 0.276, 0.276, 0.276], "error_classic_bin": [0.3646, 0.3646, 0.3646, 0.3646, 0.3646, 0.3646, 0.3646, 0.3646, 0.3646, 0.3646], "weights_learned_HSGS": [[-0.228236223846, -0.030962467201, -0.29250077801, -0.208384895873, -0.172454409066, -0.248492541032, -0.198619188027, -0.215874073364, -0.386730751038, -0.102695694937, -0.386730751038, -0.102695694937, -0.386730751038, -0.102695694937, -0.386730751038, -0.102695694937], [-0.139757479571, -0.185868724824, -0.205246005649, -0.09250412379, -0.002626604209, -0.136690839915, -0.094576808126, -0.063914750291, -0.290347776062, -0.290347776062, -0.349459892516, -0.349459892516, -0.349459892516, -0.290347776062, -0.349459892516, -0.349459892516]], "weights_learned_encoding_weight": [[-0.032051887991, -0.162687104329, -0.180443938116, -0.03173980226, -0.006023886809, -0.132443439419, -0.043834448822, -0.07707771286, -0.337916070965, -0.337916070965, -0.337916070965, -0.337916070965, -0.337916070965, -0.337916070965, -0.337916070965, -0.337916070965], [-0.113950720353, -0.210121287354, -0.170716152702, -0.120604729228, -0.029056449753, -0.166699698504, -0.074093126614, -0.096221154441, -0.327069068336, -0.327069068336, -0.327069068336, -0.327069068336, -0.327069068336, -0.327069068336, -0.327069068336, -0.327069068336]], "weights_learned_encoding_input": [[-0.047288360003, -0.16649029719, -0.182192419342, -0.036736437891, -0.009063904487, -0.136647569765, -0.04099340319, -0.066912002324, -0.337377526031, -0.337377526031, -0.337377526031, -0.337377526031, -0.337377526031, -0.337377526031, -0.337377526031, -0.337377526031], [-0.107276638304, -0.214394014363, -0.168756223664, -0.098372033221, -0.028121258652, -0.166264366355, -0.066335598878, -0.08658304274, -0.328641052262, -0.328641052262, -0.328641052262, -0.328641052262, -0.328641052262, -0.328641052262, -0.328641052262, -0.328641052262]], "weights_learned_phase_encoding": [[-0.0436190223, -0.160822354041, -0.176362751918, -0.038735144778, -0.015383129921, -0.137022841252, -0.04357214981, -0.0570140044, -0.338280263055, -0.338280263055, -0.338280263055, -0.338280263055, -0.338280263055, -0.338280263055, -0.338280263055, -0.338280263055], [-0.10503464386, -0.235345025852, -0.182488282919, -0.08683827167, -0.041577185843, -0.163610611047, -0.065153666105, -0.084000037318, -0.326523253893, -0.326523253893, -0.326523253893, -0.326523253893, -0.326523253893, -0.326523253893, -0.326523253893, -0.326523253893]], "weights_learned_classic": [[-0.070540023846, -0.181709294951, -0.171318955193, -0.055541457187, -0.027987460436, -0.14283611594, -0.046984822061, -0.07582405533, -0.335490030489, -0.335490030489, -0.335490030489, -0.335490030489, -0.335490030489, -0.335490030489, -0.335490030489, -0.335490030489], [-0.090533054323, -0.224965037524, -0.172047590354, -0.082635461519, -0.037020432853, -0.175006408416, -0.070442299974, -0.090274594977, -0.327806369973, -0.327806369973, -0.327806369973, -0.327806369973, -0.327806369973, -0.327806369973, -0.327806369973, -0.327806369973]], "weights_learned_classic_bin": [[-0.042714413625, -0.165920240157, -0.180814507358, -0.039403657804, -0.008887721873, -0.137681559595, -0.04116192164, -0.063687901776, -0.337567356682, -0.337567356682, -0.337567356682, -0.337567356682, -0.337567356682, -0.337567356682, -0.337567356682, -0.337567356682], [-0.098758097282, -0.213316055787, -0.167061122041, -0.090033347963, -0.024209631657, -0.166444190121, -0.060692088415, -0.079527474804, -0.329854087588, -0.329854087588, -0.329854087588, -0.329854087588, -0.329854087588, -0.329854087588, -0.329854087588, -0.329854087588]]}