{"error_HSGS": [0.3646, 0.3646, 0.3646, 0.3646, 0.3646, 0.3646, 0.3646, 0.3646, 0.3646, 0.3646, 0.3646, 0.3646, 0.3646, 0.3646, 0.3646, 0.3646, 0.3646, 0.3646, 0.3646, 0.3646, 0.3646, 0.3646, 0.3646, 0.3646, 0.3646, 0.3646, 0.3646, 0.3646, 0.3646, 0.3646, 0.3646, 0.3646, 0.3646, 0.3646, 0.3646, 0.3646, 0.3646, 0.3646, 0.3646, 0.3646], "error_encoding_weight": [0.5677, 0.5625, 0.5417, 0.5938, 0.5625, 0.6146, 0.6094, 0.526, 0.6094, 0.5781, 0.5885, 0.5781, 0.5833, 0.5833, 0.5417, 0.5677, 0.599, 0.5677, 0.6042, 0.5677, 0.5729, 0.5781, 0.5885, 0.5312, 0.6146, 0.4948, 0.5469, 0.5885, 0.5781, 0.5729, 0.599, 0.6146, 0.5729, 0.5521, 0.5781, 0.5469, 0.625, 0.5052, 0.526, 0.5885], "error_encoding_input": [0.5417, 0.5156, 0.5417, 0.4531, 0.4688, 0.5, 0.5573, 0.5417, 0.5052, 0.5417, 0.5104, 0.4948, 0.5052, 0.4896, 0.4792, 0.5156, 0.5469, 0.4688, 0.5, 0.4896, 0.474, 0.4635, 0.4635, 0.4219, 0.4688, 0.4948, 0.474, 0.5052, 0.4219, 0.5, 0.4844, 0.4531, 0.5312, 0.5, 0.4896, 0.4583, 0.4844, 0.4896, 0.5312, 0.4635], "error_classic": [0.4167, 0.4167, 0.4167, 0.4167, 0.4167, 0.4167, 0.4167, 0.4167, 0.4167, 0.4167, 0.4167, 0.4167, 0.4167, 0.4167, 0.4167, 0.4167, 0.4167, 0.4167, 0.4167, 0.4167, 0.4167, 0.4167, 0.4167, 0.4167, 0.4167, 0.4167, 0.4167, 0.4167, 0.4167, 0.4167, 0.4167, 0.4167, 0.4167, 0.4167, 0.4167, 0.4167, 0.4167, 0.4167, 0.4167, 0.4167], "error_classic_bin": [0.3646, 0.3646, 0.3646, 0.3646, 0.3646, 0.3646, 0.3646, 0.3646, 0.3646, 0.3646, 0.3646, 0.3646, 0.3646, 0.3646, 0.3646, 0.3646, 0.3646, 0.3646, 0.3646, 0.3646, 0.3646, 0.3646, 0.3646, 0.3646, 0.3646, 0.3646, 0.3646, 0.3646, 0.3646, 0.3646, 0.3646, 0.3646, 0.3646, 0.3646, 0.3646, 0.3646, 0.3646, 0.3646, 0.3646, 0.3646], "weights_learned_HSGS": [[-0.343840824913, -0.028684378041, -0.488203431139, -0.358586615266, -0.294567397264, -0.442165574996, -0.323686938, -0.356328726995], [-0.428036364525, -0.41244692461, -0.62402642554, -0.017821807712, -0.313161540541, -0.215963853537, -0.334627277077, -0.016120091484]], "weights_learned_encoding_weight": [[-0.175573958858, -0.553866134622, -0.594324096804, -0.15679975211, -0.044348741414, -0.467292667333, -0.135182270719, -0.214465152091], [-0.259391177605, -0.590501731954, -0.465708036083, -0.284247448708, -0.084071382094, -0.43588574297, -0.17458132183, -0.242487769647]], "weights_learned_encoding_input": [[-0.197030615114, -0.561334315223, -0.59260635827, -0.133491871207, -0.035210544036, -0.46178313195, -0.128246926644, -0.214824649798], [-0.289856035755, -0.590036481974, -0.466926647894, -0.239040978137, -0.077698519158, -0.453769573169, -0.173673344054, -0.224884478979]], "weights_learned_classic": [[-0.212813602324, -0.574093000427, -0.543371963459, -0.161862576847, -0.066328916357, -0.463811002148, -0.145191201291, -0.251146087523], [-0.255848149512, -0.578286942551, -0.460766334527, -0.229739550647, -0.092602742116, -0.482870039196, -0.185675141172, -0.242540841204]], "weights_learned_classic_bin": [[-0.167328528401, -0.572193730419, -0.589264760867, -0.143026416914, -0.039259755295, -0.469362231266, -0.128247102853, -0.196510641449], [-0.252629687707, -0.625049134761, -0.464222374414, -0.208763591777, -0.059205698702, -0.46633420978, -0.158504561168, -0.200774908754]]}