{"error_HSGS": [0.3704, 0.4815, 0.5926, 0.7037, 0.4815, 0.5185, 0.5926, 0.4444, 0.5185, 0.3333, 0.5556, 0.4444, 0.4074, 0.4074, 0.5556, 0.2963, 0.5926, 0.4444, 0.4815, 0.5926], "error_encoding_weight": [0.3333, 0.3333, 0.3333, 0.3333, 0.3333, 0.3333, 0.3333, 0.3333, 0.3333, 0.3333, 0.3333, 0.3333, 0.3333, 0.3333, 0.3333, 0.3333, 0.3333, 0.3333, 0.3333, 0.3333], "error_encoding_input": [0.4444, 0.4074, 0.4815, 0.7037, 0.4444, 0.5185, 0.3704, 0.5556, 0.4815, 0.4444, 0.3704, 0.4074, 0.5185, 0.5926, 0.3704, 0.2963, 0.3333, 0.3333, 0.4444, 0.5556], "error_classic": [0.3333, 0.3333, 0.3333, 0.3333, 0.3333, 0.3333, 0.3333, 0.3333, 0.3333, 0.3333, 0.3333, 0.3333, 0.3333, 0.3333, 0.3333, 0.3333, 0.3333, 0.3333, 0.3333, 0.3333], "error_classic_bin": [0.1481, 0.1481, 0.1481, 0.1481, 0.1481, 0.1481, 0.1481, 0.1481, 0.1481, 0.1481, 0.1481, 0.1481, 0.1481, 0.1481, 0.1481, 0.1481, 0.1481, 0.1481, 0.1481, 0.1481], "weights_learned_HSGS": [[-0.286651891766, 0.286651891766, 0.286651891766, -0.286651891766, 0.286651891766, 0.059093813893, 0.059093813893, 0.286651891766, 0.286651891766, 0.059093813893, 0.059093813893, 0.286651891766, -0.286651891766, 0.286651891766, 0.286651891766, -0.286651891766], [-0.32763459823, -0.06959077359, -0.32763459823, -0.32763459823, -0.06959077359, 0.32763459823, 0.06959077359, -0.06959077359, -0.06959077359, 0.32763459823, 0.06959077359, -0.32763459823, -0.32763459823, -0.06959077359, -0.32763459823, -0.32763459823]], "weights_learned_encoding_weight": [[-0.288365276891, 0.288365276891, 0.288365276891, -0.288365276891, 0.288365276891, 0.023160337878, 0.023160337878, 0.288365276891, 0.288365276891, 0.023160337878, 0.023160337878, 0.288365276891, -0.288365276891, 0.288365276891, 0.288365276891, -0.288365276891], [-0.231810813747, -0.271602051242, -0.231810813747, -0.231810813747, -0.271602051242, 0.231810813747, 0.271602051242, -0.271602051242, -0.271602051242, 0.231810813747, 0.271602051242, -0.231810813747, -0.231810813747, -0.271602051242, -0.231810813747, -0.231810813747]], "weights_learned_encoding_input": [[-0.288664983404, 0.288664983404, 0.288664983404, -0.288664983404, 0.288664983404, 0.004193097734, 0.004193097734, 0.288664983404, 0.288664983404, 0.004193097734, 0.004193097734, 0.288664983404, -0.288664983404, 0.288664983404, 0.288664983404, -0.288664983404], [-0.250000000001, -0.249999999999, -0.250000000001, -0.250000000001, -0.249999999999, 0.250000000001, 0.249999999999, -0.249999999999, -0.249999999999, 0.250000000001, 0.249999999999, -0.250000000001, -0.250000000001, -0.249999999999, -0.250000000001, -0.250000000001]], "weights_learned_classic": [[-0.288253180374, 0.288253180374, 0.288253180372, -0.288253180374, 0.288253180372, 0.027024285634, 0.027024285634, 0.288253180372, 0.288253180372, 0.027024285638, 0.027024285634, 0.288253180374, -0.288253180374, 0.288253180374, 0.288253180372, -0.288253180372], [-0.266769017249, -0.226623861726, -0.266769017249, -0.266769017249, -0.226623861726, 0.266769017249, 0.226623861726, -0.226623861726, -0.226623861726, 0.266769017249, 0.226623861726, -0.266769017249, -0.266769017249, -0.226623861726, -0.266769017249, -0.266769017249]], "weights_learned_classic_bin": [[-0.286627663865, 0.286627663865, 0.286627663865, -0.286627663865, 0.286627663865, 0.059445327163, 0.059445327163, 0.286627663865, 0.286627663865, 0.059445327164, 0.059445327163, 0.286627663865, -0.286627663865, 0.286627663865, 0.286627663865, -0.286627663865], [-0.327495063878, -0.0704301561, -0.327495063878, -0.327495063878, -0.0704301561, 0.327495063878, 0.0704301561, -0.0704301561, -0.0704301561, 0.327495063878, 0.0704301561, -0.327495063878, -0.327495063878, -0.0704301561, -0.327495063878, -0.327495063878]]}