{"error_HSGS": [0.6667, 0.6667, 0.6667, 0.6667, 0.6667, 0.6667, 0.6667, 0.6667, 0.6667, 0.6667, 0.6667, 0.6667, 0.6667, 0.6667, 0.6667, 0.6667, 0.6667, 0.6667, 0.6667, 0.6667], "error_encoding_weight": [0.3333, 0.3333, 0.3333, 0.3333, 0.3333, 0.3333, 0.3333, 0.3333, 0.3333, 0.3333, 0.3333, 0.3333, 0.3333, 0.3333, 0.3333, 0.3333, 0.3333, 0.3333, 0.3333, 0.3333], "error_encoding_input": [0.4444, 0.5556, 0.5556, 0.5926, 0.5926, 0.6667, 0.4815, 0.5185, 0.5926, 0.6296, 0.2963, 0.4815, 0.4444, 0.6296, 0.7037, 0.3704, 0.5556, 0.3333, 0.5185, 0.5926], "error_classic": [0.6296, 0.6296, 0.6296, 0.6296, 0.6296, 0.6296, 0.6296, 0.6296, 0.6296, 0.6296, 0.6296, 0.6296, 0.6296, 0.6296, 0.6296, 0.6296, 0.6296, 0.6296, 0.6296, 0.6296], "error_classic_bin": [0.6667, 0.6667, 0.6667, 0.6667, 0.6667, 0.6667, 0.6667, 0.6667, 0.6667, 0.6667, 0.6667, 0.6667, 0.6667, 0.6667, 0.6667, 0.6667, 0.6667, 0.6667, 0.6667, 0.6667], "weights_learned_HSGS": [[-0.188497477658, 0.188497477658, 0.188497477658, -0.188497477658, 0.188497477658, 0.035789752965, 0.035789752965, 0.188497477658, 0.188497477658, 0.035789752965, 0.035789752965, 0.188497477658, -0.188497477658, 0.188497477658, 0.188497477658, -0.188497477658, -0.188497477658, -0.188497477658, -0.188497477658, -0.188497477658, -0.188497477658, -0.188497477658, -0.188497477658, -0.188497477658, -0.188497477658, -0.188497477658, -0.188497477658, -0.188497477658, -0.188497477658, -0.188497477658, -0.188497477658, -0.188497477658], [-0.036854861224, -0.036854861224, -0.036854861224, -0.240052174238, -0.036854861224, 0.240052174238, 0.036854861224, -0.036854861224, -0.036854861224, 0.240052174238, 0.036854861224, -0.036854861224, -0.240052174238, -0.240052174238, -0.036854861224, -0.240052174238, -0.240052174238, -0.240052174238, -0.240052174238, -0.036854861224, -0.240052174238, -0.240052174238, -0.240052174238, -0.240052174238, -0.036854861224, -0.240052174238, -0.036854861224, -0.036854861224, -0.240052174238, -0.240052174238, -0.036854861224, -0.240052174238]], "weights_learned_encoding_weight": [[-0.188959849598, 0.188959849598, 0.188959849599, -0.188959849598, 0.188959849599, 0.007695887138, 0.007695887138, 0.188959849599, 0.188959849599, 0.007695887138, 0.007695887138, 0.188959849598, -0.188959849598, 0.188959849598, 0.188959849599, -0.188959849599, -0.188959849598, -0.188959849599, -0.188959849598, -0.188959849598, -0.188959849599, -0.188959849599, -0.188959849598, -0.188959849599, -0.188959849599, -0.188959849599, -0.188959849598, -0.188959849598, -0.188959849598, -0.188959849599, -0.188959849598, -0.188959849598], [-0.163838503547, -0.163838503547, -0.163838503547, -0.187452609122, -0.163838503547, 0.187452609122, 0.163838503547, -0.163838503547, -0.163838503547, 0.187452609122, 0.163838503547, -0.163838503547, -0.187452609122, -0.187452609122, -0.163838503547, -0.187452609122, -0.187452609122, -0.187452609122, -0.187452609122, -0.163838503547, -0.187452609122, -0.187452609122, -0.187452609122, -0.187452609122, -0.163838503547, -0.187452609122, -0.163838503547, -0.163838503547, -0.187452609122, -0.187452609122, -0.163838503547, -0.187452609122]], "weights_learned_encoding_input": [[-0.18710408786, 0.18710408786, 0.18710408786, -0.18710408786, 0.18710408786, 0.070316585114, 0.070316585114, 0.18710408786, 0.18710408786, 0.070316585114, 0.070316585114, 0.18710408786, -0.18710408786, 0.18710408786, 0.18710408786, -0.18710408786, -0.18710408786, -0.18710408786, -0.18710408786, -0.18710408786, -0.18710408786, -0.18710408786, -0.18710408786, -0.18710408786, -0.18710408786, -0.18710408786, -0.18710408786, -0.18710408786, -0.18710408786, -0.18710408786, -0.18710408786, -0.18710408786], [-0.176776695296, -0.176776695296, -0.176776695296, -0.176776695297, -0.176776695296, 0.176776695297, 0.176776695296, -0.176776695296, -0.176776695296, 0.176776695297, 0.176776695296, -0.176776695296, -0.176776695297, -0.176776695297, -0.176776695296, -0.176776695297, -0.176776695297, -0.176776695297, -0.176776695297, -0.176776695296, -0.176776695297, -0.176776695297, -0.176776695297, -0.176776695297, -0.176776695296, -0.176776695297, -0.176776695296, -0.176776695296, -0.176776695297, -0.176776695297, -0.176776695296, -0.176776695297]], "weights_learned_classic": [[-0.188915320941, 0.188915320941, 0.188915320936, -0.188915320941, 0.188915320936, 0.013304533164, 0.013304533164, 0.188915320936, 0.188915320936, 0.013304533169, 0.013304533164, 0.188915320941, -0.188915320941, 0.188915320941, 0.188915320936, -0.188915320936, -0.188915320941, -0.188915320936, -0.188915320941, -0.188915320941, -0.188915320936, -0.188915320936, -0.188915320941, -0.188915320936, -0.188915320936, -0.188915320936, -0.188915320941, -0.188915320941, -0.188915320941, -0.188915320936, -0.188915320941, -0.188915320941], [-0.163832153428, -0.163832153428, -0.163832153428, -0.187457506173, -0.163832153428, 0.187457506173, 0.163832153428, -0.163832153428, -0.163832153428, 0.187457506173, 0.163832153428, -0.163832153428, -0.187457506173, -0.187457506173, -0.163832153428, -0.187457506173, -0.187457506173, -0.187457506173, -0.187457506173, -0.163832153428, -0.187457506173, -0.187457506173, -0.187457506173, -0.187457506173, -0.163832153428, -0.187457506173, -0.163832153428, -0.163832153428, -0.187457506173, -0.187457506173, -0.163832153428, -0.187457506173]], "weights_learned_classic_bin": [[-0.188505068422, 0.188505068422, 0.18850506842, -0.188505068422, 0.18850506842, 0.035508791258, 0.035508791258, 0.18850506842, 0.18850506842, 0.03550879126, 0.035508791258, 0.188505068422, -0.188505068422, 0.188505068422, 0.18850506842, -0.18850506842, -0.188505068422, -0.18850506842, -0.188505068422, -0.188505068422, -0.18850506842, -0.18850506842, -0.188505068422, -0.18850506842, -0.18850506842, -0.18850506842, -0.188505068422, -0.188505068422, -0.188505068422, -0.18850506842, -0.188505068422, -0.188505068422], [-0.036791347524, -0.036791347524, -0.036791347524, -0.240060770641, -0.036791347524, 0.240060770641, 0.036791347524, -0.036791347524, -0.036791347524, 0.240060770641, 0.036791347524, -0.036791347524, -0.240060770641, -0.240060770641, -0.036791347524, -0.240060770641, -0.240060770641, -0.240060770641, -0.240060770641, -0.036791347524, -0.240060770641, -0.240060770641, -0.240060770641, -0.240060770641, -0.036791347524, -0.240060770641, -0.036791347524, -0.036791347524, -0.240060770641, -0.240060770641, -0.036791347524, -0.240060770641]]}